digraph Tree {
node [shape=box, style="filled, rounded", color="black", fontname=helvetica] ;
edge [fontname=helvetica] ;
0 [label=<ELHT1 &le; 1.5<br/>gini = 0.496<br/>samples = 170<br/>value = [77, 93]>, fillcolor="#399de52c"] ;
1 [label=<wallConstruction &le; 1.5<br/>gini = 0.097<br/>samples = 78<br/>value = [4, 74]>, fillcolor="#399de5f1"] ;
0 -> 1 [labeldistance=2.5, labelangle=45, headlabel="True"] ;
2 [label=<WHOPPR &le; 1.0<br/>gini = 0.184<br/>samples = 39<br/>value = [4, 35]>, fillcolor="#399de5e2"] ;
1 -> 2 ;
3 [label=<yrConstructionCategory &le; 2.5<br/>gini = 0.149<br/>samples = 37<br/>value = [3, 34]>, fillcolor="#399de5e9"] ;
2 -> 3 ;
4 [label=<numFloors &le; 2.5<br/>gini = 0.375<br/>samples = 8<br/>value = [2, 6]>, fillcolor="#399de5aa"] ;
3 -> 4 ;
5 [label=<gini = 0.0<br/>samples = 2<br/>value = [2, 0]>, fillcolor="#e58139ff"] ;
4 -> 5 ;
6 [label=<gini = 0.0<br/>samples = 6<br/>value = [0, 6]>, fillcolor="#399de5ff"] ;
4 -> 6 ;
7 [label=<censusRegion &le; 2.5<br/>gini = 0.067<br/>samples = 29<br/>value = [1, 28]>, fillcolor="#399de5f6"] ;
3 -> 7 ;
8 [label=<buildingAreaCategory &le; 6.0<br/>gini = 0.375<br/>samples = 4<br/>value = [1, 3]>, fillcolor="#399de5aa"] ;
7 -> 8 ;
9 [label=<gini = 0.0<br/>samples = 3<br/>value = [0, 3]>, fillcolor="#399de5ff"] ;
8 -> 9 ;
10 [label=<gini = 0.0<br/>samples = 1<br/>value = [1, 0]>, fillcolor="#e58139ff"] ;
8 -> 10 ;
11 [label=<gini = 0.0<br/>samples = 25<br/>value = [0, 25]>, fillcolor="#399de5ff"] ;
7 -> 11 ;
12 [label=<yrConstructionCategory &le; 5.5<br/>gini = 0.5<br/>samples = 2<br/>value = [1, 1]>, fillcolor="#e5813900"] ;
2 -> 12 ;
13 [label=<gini = 0.0<br/>samples = 1<br/>value = [0, 1]>, fillcolor="#399de5ff"] ;
12 -> 13 ;
14 [label=<gini = 0.0<br/>samples = 1<br/>value = [1, 0]>, fillcolor="#e58139ff"] ;
12 -> 14 ;
15 [label=<gini = 0.0<br/>samples = 39<br/>value = [0, 39]>, fillcolor="#399de5ff"] ;
1 -> 15 ;
16 [label=<buildingAreaCategory &le; 9.5<br/>gini = 0.328<br/>samples = 92<br/>value = [73, 19]>, fillcolor="#e58139bd"] ;
0 -> 16 [labeldistance=2.5, labelangle=-45, headlabel="False"] ;
17 [label=<numFloors &le; 2.5<br/>gini = 0.306<br/>samples = 90<br/>value = [73, 17]>, fillcolor="#e58139c4"] ;
16 -> 17 ;
18 [label=<WWR &le; 2.5<br/>gini = 0.444<br/>samples = 39<br/>value = [26, 13]>, fillcolor="#e581397f"] ;
17 -> 18 ;
19 [label=<censusRegion &le; 6.5<br/>gini = 0.499<br/>samples = 25<br/>value = [13, 12]>, fillcolor="#e5813914"] ;
18 -> 19 ;
20 [label=<WKHRSC &le; 3.5<br/>gini = 0.49<br/>samples = 21<br/>value = [9, 12]>, fillcolor="#399de540"] ;
19 -> 20 ;
21 [label=<HVACUpgrade &le; 1.5<br/>gini = 0.198<br/>samples = 9<br/>value = [1, 8]>, fillcolor="#399de5df"] ;
20 -> 21 ;
22 [label=<buildingAreaCategory &le; 3.0<br/>gini = 0.5<br/>samples = 2<br/>value = [1, 1]>, fillcolor="#e5813900"] ;
21 -> 22 ;
23 [label=<gini = 0.0<br/>samples = 1<br/>value = [1, 0]>, fillcolor="#e58139ff"] ;
22 -> 23 ;
24 [label=<gini = 0.0<br/>samples = 1<br/>value = [0, 1]>, fillcolor="#399de5ff"] ;
22 -> 24 ;
25 [label=<gini = 0.0<br/>samples = 7<br/>value = [0, 7]>, fillcolor="#399de5ff"] ;
21 -> 25 ;
26 [label=<WKHRSC &le; 5.5<br/>gini = 0.444<br/>samples = 12<br/>value = [8, 4]>, fillcolor="#e581397f"] ;
20 -> 26 ;
27 [label=<WHOPPR &le; 0.5<br/>gini = 0.32<br/>samples = 10<br/>value = [8, 2]>, fillcolor="#e58139bf"] ;
26 -> 27 ;
28 [label=<gini = 0.0<br/>samples = 8<br/>value = [8, 0]>, fillcolor="#e58139ff"] ;
27 -> 28 ;
29 [label=<gini = 0.0<br/>samples = 2<br/>value = [0, 2]>, fillcolor="#399de5ff"] ;
27 -> 29 ;
30 [label=<gini = 0.0<br/>samples = 2<br/>value = [0, 2]>, fillcolor="#399de5ff"] ;
26 -> 30 ;
31 [label=<gini = 0.0<br/>samples = 4<br/>value = [4, 0]>, fillcolor="#e58139ff"] ;
19 -> 31 ;
32 [label=<MAINHT &le; 2.5<br/>gini = 0.133<br/>samples = 14<br/>value = [13, 1]>, fillcolor="#e58139eb"] ;
18 -> 32 ;
33 [label=<gini = 0.0<br/>samples = 12<br/>value = [12, 0]>, fillcolor="#e58139ff"] ;
32 -> 33 ;
34 [label=<roofConstuction &le; 5.0<br/>gini = 0.5<br/>samples = 2<br/>value = [1, 1]>, fillcolor="#e5813900"] ;
32 -> 34 ;
35 [label=<gini = 0.0<br/>samples = 1<br/>value = [0, 1]>, fillcolor="#399de5ff"] ;
34 -> 35 ;
36 [label=<gini = 0.0<br/>samples = 1<br/>value = [1, 0]>, fillcolor="#e58139ff"] ;
34 -> 36 ;
37 [label=<yrConstructionCategory &le; 8.5<br/>gini = 0.145<br/>samples = 51<br/>value = [47, 4]>, fillcolor="#e58139e9"] ;
17 -> 37 ;
38 [label=<OCCUPYP &le; 34.0<br/>gini = 0.113<br/>samples = 50<br/>value = [47, 3]>, fillcolor="#e58139ef"] ;
37 -> 38 ;
39 [label=<WKHRSC &le; 3.0<br/>gini = 0.444<br/>samples = 3<br/>value = [2, 1]>, fillcolor="#e581397f"] ;
38 -> 39 ;
40 [label=<gini = 0.0<br/>samples = 1<br/>value = [0, 1]>, fillcolor="#399de5ff"] ;
39 -> 40 ;
41 [label=<gini = 0.0<br/>samples = 2<br/>value = [2, 0]>, fillcolor="#e58139ff"] ;
39 -> 41 ;
42 [label=<WWR &le; 5.5<br/>gini = 0.081<br/>samples = 47<br/>value = [45, 2]>, fillcolor="#e58139f4"] ;
38 -> 42 ;
43 [label=<HDD65C &le; 1.5<br/>gini = 0.043<br/>samples = 45<br/>value = [44, 1]>, fillcolor="#e58139f9"] ;
42 -> 43 ;
44 [label=<buildingAreaCategory &le; 5.5<br/>gini = 0.198<br/>samples = 9<br/>value = [8, 1]>, fillcolor="#e58139df"] ;
43 -> 44 ;
45 [label=<gini = 0.0<br/>samples = 1<br/>value = [0, 1]>, fillcolor="#399de5ff"] ;
44 -> 45 ;
46 [label=<gini = 0.0<br/>samples = 8<br/>value = [8, 0]>, fillcolor="#e58139ff"] ;
44 -> 46 ;
47 [label=<gini = 0.0<br/>samples = 36<br/>value = [36, 0]>, fillcolor="#e58139ff"] ;
43 -> 47 ;
48 [label=<OWNTYPE &le; 1.5<br/>gini = 0.5<br/>samples = 2<br/>value = [1, 1]>, fillcolor="#e5813900"] ;
42 -> 48 ;
49 [label=<gini = 0.0<br/>samples = 1<br/>value = [0, 1]>, fillcolor="#399de5ff"] ;
48 -> 49 ;
50 [label=<gini = 0.0<br/>samples = 1<br/>value = [1, 0]>, fillcolor="#e58139ff"] ;
48 -> 50 ;
51 [label=<gini = 0.0<br/>samples = 1<br/>value = [0, 1]>, fillcolor="#399de5ff"] ;
37 -> 51 ;
52 [label=<gini = 0.0<br/>samples = 2<br/>value = [0, 2]>, fillcolor="#399de5ff"] ;
16 -> 52 ;
}